{"v":2,"trainedOn":{"files":103,"frames":2020967,"moves":94867},"tokens":["action","backward","crouch","dive","forward","forward-left","forward-right","jump","jump-forward","long_jump","turn","wait"],"unigram":{"wait":12160,"turn":17826,"backward":6464,"forward-right":5868,"forward-left":5685,"jump":14923,"long_jump":5613,"crouch":3897,"dive":3350,"forward":10436,"jump-forward":7815,"action":830},"bigram":{"wait":{"turn":3290,"wait":2447,"jump":1895,"crouch":179,"dive":79,"backward":1002,"forward":990,"jump-forward":438,"forward-left":627,"action":649,"long_jump":153,"forward-right":346},"turn":{"backward":1848,"forward-right":1472,"long_jump":761,"wait":2954,"jump":4237,"dive":719,"forward":1202,"forward-left":1384,"jump-forward":672,"turn":2141,"crouch":394,"action":33},"backward":{"turn":1847,"dive":261,"backward":672,"jump":1444,"long_jump":267,"wait":1079,"jump-forward":159,"forward":278,"forward-left":161,"action":17,"crouch":177,"forward-right":100},"forward-right":{"forward-left":307,"turn":1262,"long_jump":208,"wait":385,"backward":140,"dive":242,"jump-forward":1054,"forward-right":503,"forward":1323,"jump":308,"crouch":132,"action":3},"forward-left":{"wait":428,"forward":1155,"long_jump":377,"backward":120,"crouch":165,"forward-right":311,"turn":1192,"jump-forward":929,"dive":268,"jump":301,"forward-left":433,"action":3},"jump":{"wait":1770,"turn":4499,"backward":1606,"jump-forward":1199,"forward":151,"jump":2601,"forward-left":237,"long_jump":1947,"forward-right":150,"dive":486,"crouch":255,"action":15},"long_jump":{"crouch":1212,"turn":776,"long_jump":472,"wait":302,"backward":174,"jump":1816,"forward-left":216,"forward":240,"forward-right":116,"jump-forward":121,"dive":159,"action":5},"crouch":{"long_jump":814,"crouch":890,"backward":186,"wait":390,"jump":344,"dive":94,"forward":296,"turn":363,"jump-forward":116,"forward-left":201,"forward-right":145,"action":54},"dive":{"jump":567,"backward":224,"turn":573,"forward":570,"jump-forward":429,"forward-right":240,"wait":221,"dive":121,"action":28,"forward-left":162,"long_jump":120,"crouch":95},"forward":{"forward-left":853,"dive":643,"jump-forward":2326,"turn":1431,"wait":1146,"forward-right":1122,"forward":1562,"backward":343,"crouch":315,"long_jump":358,"jump":325,"action":7},"jump-forward":{"jump-forward":371,"turn":436,"jump":1063,"dive":261,"forward":2663,"long_jump":132,"backward":144,"forward-right":1347,"forward-left":1099,"crouch":29,"wait":263,"action":4},"action":{"action":12,"forward":6,"wait":677,"turn":16,"forward-right":16,"forward-left":5,"jump":21,"backward":5,"crouch":54,"dive":17,"long_jump":1}},"similar":{"action":[["wait",0.541],["turn",0.501],["backward",0.438]],"backward":[["wait",0.961],["jump",0.95],["turn",0.894]],"crouch":[["long_jump",0.77],["jump",0.632],["turn",0.612]],"dive":[["forward-right",0.919],["forward-left",0.918],["forward",0.858]],"forward":[["forward-right",0.938],["forward-left",0.935],["dive",0.858]],"forward-left":[["forward-right",0.989],["forward",0.935],["dive",0.918]],"forward-right":[["forward-left",0.989],["forward",0.938],["dive",0.919]],"jump":[["backward",0.95],["wait",0.896],["turn",0.806]],"jump-forward":[["dive",0.788],["forward-right",0.772],["forward-left",0.75]],"long_jump":[["turn",0.788],["crouch",0.77],["backward",0.759]],"turn":[["backward",0.894],["wait",0.868],["dive",0.85]],"wait":[["backward",0.961],["jump",0.896],["turn",0.868]]},"mlp":{"K":4,"hidden":32,"phase":8,"in":56,"W1":[[-0.6354,0.3498,0.4593,-0.6671,-0.089,-1.3074,0.1639,1.631,-1.6209,-0.0209,0.7717,-0.9561,-0.3848,-0.155,-2.4361,0.3723,1.3641,0.1999,0.0911,-0.4145,-2.2691,-0.3441,-0.2593,0.3487,-1.207,0.8903,-0.0892,-1.5483,0.5816,1.7769,1.0724,0.9517],[-2.4079,-0.7389,1.5669,0.8361,0.6341,-2.012,-1.4919,-2.4237,0.1147,-0.2508,-1.9282,-2.418,0.5315,-0.176,0.1539,-0.9496,0.7524,0.5113,-0.1634,0.6743,1.2878,0.1059,-0.6369,0.0597,-0.7439,0.3205,0.4277,-0.5383,-0.8661,0.0448,1.7246,-1.2715],[-0.5653,-3.0387,-0.8184,-0.3313,0.0523,0.1951,1.2741,1.9275,-2.1323,-0.1014,0.5561,1.2369,-0.0984,-2.8902,0.6799,0.9971,-2.9626,-1.9684,-1.2086,-0.6922,0.0953,-0.0685,0.836,-0.2159,-0.5895,-1.1708,0.2974,0.3986,0.1674,1.0502,-1.5636,-1.9862],[0.1857,-0.2144,-0.5503,-2.2849,-0.3114,-0.0485,0.7663,0.3981,0.1014,0.2295,-1.5902,-1.9535,-0.3557,-1.8884,-0.4027,-1.7676,-1.5499,0.2923,0.0768,-0.3223,-0.8769,0.7793,2.1316,-1.064,-0.4852,0.4313,-0.4987,0.2104,-0.056,-1.4971,0.3895,0.0598],[-1.9252,-1.3985,-2.4828,1.2738,-0.8841,0.0008,-0.1128,-1.2494,-1.5191,0.3152,-1.7382,-0.5977,0.5543,0.5222,0.1293,-1.248,-0.2743,-0.1477,0.5112,0.5397,1.571,-0.818,-1.3031,0.5697,0.2792,1.2646,-1.2029,0.4624,-0.3513,-0.0979,1.469,-1.1491],[0.044,-0.3615,-1.3734,-0.1736,-1.399,0.4123,-0.4976,0.7011,-0.6379,0.0227,-1.0849,0.3116,0.6485,0.2069,0.9696,-1.1836,0.7143,-0.346,-0.7766,-1.3613,-0.7997,-1.6703,-1.9588,-1.2969,0.3841,-2.1808,0.3129,0.0438,-0.9743,0.0044,-1.3134,0.092],[0.0063,0.8097,-0.5418,0.2948,-0.9145,-0.2,-1.1084,-2.3304,1.3531,0.1493,-0.1979,1.043,0.6195,1.3566,1.0987,-0.0507,-0.1509,-0.4461,0.1972,-0.5687,-0.3129,-2.001,-0.8642,0.1927,-1.0802,-0.8382,-2.9236,0.1135,-0.6609,-1.4883,-0.2809,-0.8868],[-0.2389,-0.2051,-0.2099,-0.5918,-0.5192,0.5574,-0.7734,-1.0198,0.3895,-0.4618,-2.0772,0.315,-0.6652,-1.1912,-0.588,-1.1847,-1.0708,-1.9516,-0.3344,-0.2925,-0.7241,0.6511,-1.8074,-0.1872,0.4274,-1.4303,-1.0435,1.1545,-0.4525,0.7298,-0.4146,-0.1965],[-2.0933,-0.6723,-1.4227,0.1583,0.0143,0.3294,-0.1028,-1.4203,-1.074,0.0287,-1.0991,-0.487,0.3312,-1.2668,-1.3378,-1.2542,-0.0849,0.3477,-0.6878,-0.3336,-0.3964,-1.0453,1.1294,1.0874,0.633,1.122,0.0543,0.5739,0.0748,-0.9164,0.3213,-0.099],[2.8138,-0.333,1.2039,0.7468,-0.1627,-1.4773,-0.6539,0.382,1.5945,-1.1876,-0.4963,-1.5767,-1.2792,-2.7846,-0.6094,-0.9102,-0.8384,-0.8034,-0.8677,-1.5184,-1.9136,1.1378,-1.0764,-0.6075,-0.1094,-0.3912,0.8267,-0.5282,-0.0589,0.2388,-1.0614,-1.5855],[0.8438,0.2241,-1.8986,0.9486,0.4326,0.0596,-1.6977,-1.6046,0.2647,-0.4958,1.9047,-0.4927,-0.8136,1.137,-0.7457,-2.1289,0.8402,0.0259,-0.1542,0.6642,0.8204,-0.2631,-0.743,0.1921,0.0227,0.2053,-0.7242,0.2121,0.2874,-0.911,-1.8038,-0.3551],[-0.5245,0.4942,2.3488,-3.0605,0.6458,0.9931,0.1013,-0.5441,-0.0025,-1.4667,0.3255,0.892,-0.1393,1.7167,-0.8341,2.502,0.6581,-0.5527,0.1792,0.0816,0.137,0.1567,-0.44,-0.4392,-0.1931,-2.7596,0.4906,0.1834,-1.2186,-0.2957,1.5466,1.5673],[0.2838,-0.7645,-1.014,-0.2714,-0.2481,0.8792,-0.0532,-0.8824,-0.4175,0.6261,0.1272,-0.0022,-0.1379,0.9584,-1.1511,2.7467,0.8357,-0.8387,-0.6309,0.3722,-0.0227,-0.0943,-0.2373,2.1537,-1.7136,-0.2448,0.0271,0.4604,-0.9724,3.1434,-0.1959,-0.7507],[-2.2423,-0.6516,0.1457,0.3862,1.8912,-0.0489,-0.0757,-0.8957,0.4406,-0.8532,-1.2372,-1.9118,0.3537,-1.9456,-0.2945,-1.7728,-0.0794,-0.4572,-1.0188,1.1026,1.1522,-2.0333,-0.8334,-0.142,0.4233,0.5805,-2.6876,0.4966,-0.6151,-1.9717,3.5257,0.4799],[-3.2663,-1.6074,-1.0302,0.545,0.1551,-2.7726,-0.3735,-2.4618,-0.6976,0.1446,-1.5179,-1.66,-0.0047,-1.203,0.1642,-0.0219,-2.096,-1.6085,0.0165,-2.2361,-1.1803,-1.7536,-1.1337,0.3324,0.3357,1.7569,-0.0759,0.6256,-0.3069,0.1663,-1.0067,-1.3413],[1.2634,-1.0646,-0.9374,-2.4548,-0.8782,0.2464,-1.9157,-0.8887,0.125,0.2249,-1.453,-1.3812,-1.6198,2.7494,-2.017,0.7587,-0.3986,-0.5581,-0.4644,-0.1471,-1.2855,1.7025,-1.2377,-1.4643,0.1901,0.3628,2.2474,-1.5039,0.5153,0.4424,-1.0911,0.5017],[-3.0402,0.0505,1.4451,1.8618,0.3413,1.2262,0.8533,3.1607,-0.8255,-1.2891,-1.3676,-0.2363,-0.9993,-0.0992,-0.6604,-0.2248,-0.6076,0.1693,0.5049,0.8802,-1.6053,-1.5453,2.8266,-1.7233,0.1959,-0.6835,0.5757,0.1603,0.3118,-1.6702,-0.6833,-0.5953],[0.6939,-0.4102,1.8485,0.7666,-2.2188,-0.2136,0.6005,0.5758,-0.6372,-1.4414,0.6857,-1.4133,0.3923,-2.8977,0.5442,-2.4551,-0.8732,0.0327,-0.0599,1.0039,-0.5992,-0.2685,-0.2984,-0.4333,-0.6911,-1.3177,-2.2395,-1.6517,0.8038,0.9768,1.8265,-1.4953],[0.4617,-1.5178,-1.1936,0.1297,-0.7663,-0.1477,0.6899,-1.4605,-2.8475,0.0798,0.7642,1.0428,-0.4484,0.4283,1.9915,-1.5354,-0.2218,1.2419,-0.1328,1.026,1.7757,-1.6403,-2.0223,-0.8701,0.4196,-0.3915,-0.8534,-1.393,-0.419,-1.6846,-0.0713,-0.7011],[1.2531,-0.039,0.1066,-1.2845,-0.3797,-0.5532,0.3894,1.2032,-0.2903,-0.1358,-1.8967,1.089,-0.6989,0.9683,0.2424,-1.9373,-0.1388,-0.3466,-0.2445,-0.1616,-1.7263,1.459,-1.477,-0.7714,-1.0534,-0.0823,-1.2717,1.3748,0.2587,0.8949,-0.1262,-0.1552],[-1.751,-0.3679,-0.8054,-2.0399,-0.6721,1.4535,0.5627,-1.0788,-0.2735,-1.7176,-1.2221,0.3376,1.0792,-0.6277,-1.224,-0.7593,-0.245,-0.7928,-0.5153,-1.0554,-1.9485,-0.9789,1.0981,-0.8942,-0.3731,-0.2639,1.048,-1.6415,-0.0472,-0.4485,-0.4124,-0.2219],[1.3327,0.0442,-0.0894,0.4796,0.2323,-0.1353,-0.7632,0.0654,1.5577,1.7547,-1.3236,-0.7898,-0.5534,-0.698,-0.8676,-0.2434,-1.0099,-0.1671,0.0363,0.2609,0.5692,1.4604,-0.8315,-0.4233,0.7196,1.1704,-1.6604,-0.0302,-1.6522,-2.1185,-1.5201,0.0193],[0.6561,-1.0781,-2.1008,0.8222,0.1608,0.3134,-2.5052,-1.683,1.5448,-0.7254,-1.4071,2.2741,0.2916,-1.0343,0.958,1.2469,-0.977,-1.5697,-0.5226,-3.0933,0.869,0.5233,-1.7977,-0.6007,-0.0536,-1.9974,-0.2216,-0.1097,0.3857,-2.1566,-0.4628,0.1394],[-1.3168,-0.9975,-0.267,-2.846,0.2891,-2.7399,-0.3749,-1.3058,-0.939,0.3304,2.6923,-2.5335,0.1025,-0.8777,1.1606,-3.2516,-0.2968,0.9537,0.1098,-2.1939,0.7387,-0.5691,2.0227,1.3363,-0.6197,-3.3118,1.1096,1.1741,-0.4884,0.8814,-0.3372,1.4567],[-0.4568,0.129,-0.6596,0.982,-0.4857,-0.314,-0.5887,-0.0967,0.1891,-0.0179,-0.0645,0.178,-1.6043,-0.3925,-0.5602,0.2766,-0.7026,-0.1293,-0.2362,-0.0872,0.0954,-0.3513,-0.5226,-1.2005,-2.2247,0.8886,-0.4425,-0.4073,1.8525,2.841,-0.0637,0.1137],[-0.0223,1.2448,-1.5666,1.2056,1.7938,-1.3834,-0.9316,-0.797,-0.01,-0.5355,-0.9898,-1.3875,-0.508,0.0979,0.6343,-1.5933,-1.4058,-2.4256,-0.5534,0.2736,0.6676,-2.3953,-1.4462,2.4082,-1.3362,-1.9418,-1.0388,-0.1586,-1.3415,-0.9872,0.0384,-0.119],[-1.4625,-0.522,-0.062,-1.3631,1.5761,2.2422,0.2348,2.6638,0.2715,-0.7165,-1.0333,-0.7312,-1.642,-0.5962,1.2454,-0.7989,-0.1252,-0.0509,-2.2169,0.2221,0.8484,0.0797,1.4796,-0.6412,0.023,0.3288,-0.8247,-0.7081,-0.9672,1.9411,1.8424,-1.3065],[-0.1445,-1.0174,0.1391,-0.1102,0.5482,-0.392,-0.3273,1.9,0.0966,0.7628,-0.3176,-1.2736,-0.1529,-0.6676,-2.5733,-1.1375,-1.9327,1.0247,-0.5333,-1.6943,-1.9549,1.2881,2.9191,-0.0724,0.2583,-0.2886,-1.1025,0.4227,1.4634,1.0058,0.3786,-0.7164],[-2.469,0.3796,0.6904,0.908,-0.3677,-1.3848,-0.0195,0.0378,1.4365,-1.1716,0.3343,3.6048,0.0762,0.6824,0.0444,-1.3442,-1.0854,-1.8327,1.1063,1.2661,-0.0329,-1.5791,0.8718,-1.7437,1.8094,2.7472,-1.1842,-1.7195,-1.12,-1.7759,-1.9998,2.6327],[-0.315,-0.9705,1.4827,-2.2137,-1.6459,1.8764,-0.0359,-2.5767,0.2983,0.6886,-0.8925,-1.5073,0.4441,-0.707,-0.6671,-1.0964,-0.493,0.3336,0.6927,2.2433,0.8601,1.03,-1.2495,-1.3789,0.533,0.5494,3.696,-0.488,-0.2941,-0.3973,-1.8738,-0.4973],[-1.5106,-0.2037,-1.202,0.7911,0.0806,1.8782,-0.3658,0.5703,-1.5211,2.7396,-1.1063,-1.3416,1.1933,-1.8739,0.9442,-0.7437,-0.3795,-1.7158,-2.4648,0.4351,2.0052,-1.3016,-2.1189,-1.4307,1.1143,-1.7755,-0.7448,-1.2519,-1.4253,-1.0885,-0.0287,-1.3511],[-1.4912,-1.3737,-2.035,-0.2271,0.1451,-1.5212,0.7005,-0.9783,-0.1464,-2.9935,-0.9541,-0.9153,-0.7462,-0.8551,-2.162,-1.8326,-2.2007,2.2748,0.1406,-2.1751,-1.8248,1.249,-0.9959,0.7867,-2.7776,-1.7104,0.9355,1.9283,0.5811,1.1008,-0.4324,-1.8082],[-0.9476,-0.4858,0.6837,-1.9958,-1.6914,-1.2756,-0.7259,-2.0798,-1.8706,-1.3046,-0.7712,0.1345,0.8988,-0.0303,-0.3119,-0.2411,-1.1622,0.5403,0.8981,-1.1334,-2.0669,-1.118,-1.1286,-0.8029,-0.7739,0.7265,-0.1148,-0.7573,1.152,-1.5678,0.7872,0.8778],[2.7091,-1.2901,0.7276,-0.005,-0.2712,-1.366,-1.1344,-1.7647,-1.7658,0.7725,-1.0158,-0.5654,-1.4909,-1.2123,-0.813,-1.4216,1.1227,-0.8645,0.195,-1.1917,-0.2329,1.8158,-1.087,-0.2311,0.7328,-0.4397,-1.3776,0.8412,-1.4105,-1.7007,-1.3099,-1.3225],[0.1674,-1.5251,-1.0141,1.157,-1.9732,0.0177,1.9641,-2.1999,1.5347,0.0937,1.8148,-0.3985,1.1836,2.1033,0.6747,-0.4288,-0.929,-0.9339,0.48,0.5739,-0.2497,0.9218,0.8709,-0.2972,0.2566,-1.8743,-1.3076,-0.6889,0.1708,-2.1989,-1.6597,-0.5067],[1.7145,2.2596,-0.5029,-2.7781,-0.6079,-0.867,-2.0177,0.5005,-1.5255,-1.3784,-2.0872,-0.0981,-0.562,-1.6868,1.4741,3.3281,-0.863,0.7367,0.8615,-1.8588,-2.0399,-2.9883,-2.1371,2.0145,-0.8766,-1.3358,-1.2097,0.3393,-1.2884,0.2188,0.5125,1.0667],[-0.6839,0.0308,0.7464,-0.6602,-0.9944,2.0364,-0.1242,0.794,0.5679,-0.0138,-0.0775,-0.2009,-0.0889,-0.1175,0.3655,2.8179,1.7503,0.4697,0.2012,-0.255,0.0264,-0.2493,-1.076,-1.1723,-0.1316,-0.5676,-0.2633,-1.089,0.6032,0.9626,5.2609,-0.079],[1.1212,0.9509,-1.5035,-1.1848,0.8894,-1.6801,3.7636,-0.9203,1.7355,-0.6743,-1.3015,0.7691,-0.5657,-1.8295,0.6774,-1.64,1.6255,-1.2345,-0.7475,0.1772,-1.4812,-1.5987,1.2366,-1.9148,-0.6797,-1.0177,-2.4061,1.5316,-0.8814,-1.745,0.3055,-2.5579],[-0.0753,0.8938,1.324,0.5164,2.1079,-1.7042,0.538,0.3834,1.1071,-0.8856,0.811,-3.0004,-0.4436,0.3925,1.8819,2.271,-1.312,-0.8532,-0.0522,-1.1609,1.4893,-1.4467,-0.1521,0.8581,3.5291,1.0865,0.5811,0.7072,-0.7308,1.8865,-0.4313,-0.0696],[-0.629,-0.143,-1.624,1.1495,2.0111,1.5408,0.5179,-0.9842,-0.6901,-1.2426,-0.8369,0.1233,-0.445,-0.694,-0.8577,-2.5907,0.3432,-0.2654,-0.3742,-1.0282,-0.7603,1.88,-2.3839,-1.2363,-0.5126,3.2627,1.9883,-0.1307,1.9023,1.4464,-0.8334,1.1273],[0.5157,-0.9978,-2.6056,-1.236,-1.8635,1.5618,-1.5216,-1.6741,-1.4289,-0.2723,-1.2656,0.6255,-0.9467,1.247,-1.5925,-0.3127,-0.9483,-0.4061,-1.1727,-0.5259,2.1645,-0.2638,-0.6347,1.0722,-1.141,-1.441,-2.2268,-0.6976,1.6791,-0.5974,0.8429,2.7871],[1.4588,-1.5118,1.9013,2.3707,-0.1088,0.874,-1.7518,-1.6882,-1.2168,-0.6256,-1.0817,-1.1592,-1.0014,-1.2546,-1.3258,-2.2554,-1.2709,0.7537,-0.2435,0.2898,-0.2158,-0.8454,2.3619,2.916,-0.8329,-0.5553,-1.6377,-0.751,1.7561,-1.2232,-2.3407,-0.5167],[-2.1147,-0.8465,-0.1803,1.7018,-1.7069,-1.9805,-1.4154,-1.4083,-1.6063,-1.5818,-0.8966,0.2509,-1.3784,-1.9552,-1.8566,0.4678,-0.5054,4.1586,-0.6758,-1.1855,1.5571,-0.9916,-0.1287,1.6791,-0.2656,-0.64,-1.3546,-1.6042,-1.6045,-2.374,-0.8549,-1.3058],[-0.7242,3.4205,0.1979,-0.4453,1.8123,0.3042,-0.0853,0.1406,-1.9458,-0.7456,-1.394,0.075,3.7507,3.0371,-0.1929,-3.023,-1.3524,-1.448,-0.8352,-0.9038,-1.4118,2.2946,-1.6851,-1.6474,-1.277,-1.2255,-1.3076,-1.4869,-1.6735,0.3681,-1.6997,-1.0288],[-1.6235,-0.7965,0.9607,-0.7757,-1.2259,-1.1198,-1.3539,2.8209,-1.5862,4.6079,-1.4005,1.0831,-0.8282,-1.5429,-1.2706,-2.0542,-0.8177,-0.7989,3.7416,1.5469,-0.731,-0.764,2.2204,-1.3706,-0.6043,0.7549,1.5589,-2.6261,-0.8353,-0.2015,-1.6514,-0.1312],[-1.4824,-0.699,1.0431,-0.4928,2.0085,1.7066,-1.4146,-2.2011,1.5816,0.0368,-1.7037,0.452,-0.3708,-0.8685,3.1107,0.169,-1.33,-0.4792,-1.025,-1.2668,-1.616,2.1096,-0.0892,1.1797,1.7078,1.148,1.9005,1.9264,-0.6932,-1.0226,-1.5163,1.7812],[1.3955,-1.8897,-0.5932,-1.8581,-2.8982,-2.1556,-1.6253,1.828,-1.6767,-1.7303,-1.5868,-1.2212,-0.7859,-1.6196,-0.2834,1.5271,-1.4532,-1.9529,-0.5162,2.3844,-0.8303,-2.5389,-0.6821,-1.6932,-1.1233,-1.8898,-0.1389,0.5159,-0.8077,-1.3665,-1.5406,-2.1503],[-2.1386,-1.9474,-3.15,-1.507,-2.4792,-1.5698,1.5433,-2.1238,1.1007,-1.1198,3.1525,-2.1503,-0.5039,0.0241,-1.5724,-3.3623,3.2932,-1.4853,-0.5811,-1.2213,-1.734,-0.7775,-3.1417,-1.3238,-1.4578,-2.2315,-1.0491,0.3105,-0.6934,0.9117,1.0275,-0.6091],[0.5475,-0.3512,0.8233,0.4533,-0.7515,-0.4936,0.3236,-0.3052,-0.3404,-0.9569,-2.3391,-0.6549,-0.7346,0.0038,-0.2878,-2.4677,0.0805,0.1942,-0.349,0.5201,0.2001,-0.7301,-1.5195,0.9582,0.2918,-0.8612,0.076,-1.5284,0.3223,-1.4028,0.0277,-1.7301],[-0.5414,-0.2442,0.1579,0.2963,0.0398,-0.4804,-0.5566,-0.5596,-0.3569,-0.4136,0.9266,0.6245,-1.215,0.2448,0.1765,1.6243,0.6729,-0.3911,-0.2193,-0.0541,0.2928,-0.5964,-0.993,-0.7162,-1.2371,-0.1236,0.2718,-0.1084,-1.0357,-0.008,-0.5996,-0.6455],[-1.036,-0.4026,-0.6858,-0.7114,-0.1836,0.2207,-1.3895,-0.86,-0.3629,-0.7171,1.3409,0.003,-0.4212,-0.573,0.0443,1.5612,-0.3955,-0.7698,-0.4606,-0.4387,-0.6529,-0.8762,-0.8424,0.0268,-0.295,-0.6352,-0.9549,-0.1331,0.0997,0.7771,0.6258,-0.048],[0.592,-0.4279,0.2465,-0.4668,-0.6923,-0.1937,0.4651,-0.4938,-0.9938,-0.3502,-0.4009,-0.2146,-0.6889,0.1402,-0.7319,0.7876,-0.5606,-0.3295,-0.0252,-0.6384,-0.1184,-0.58,-1.0364,-0.6898,-0.527,-0.0322,-0.7579,-0.4757,0.3186,-0.3196,-0.0614,-0.181],[-1.5894,-0.0234,-0.7791,0.2933,-0.1918,0.3214,-0.873,-0.3352,0.0622,-0.7386,-2.3797,-1.2144,-0.2295,-0.5328,0.1125,-4.6188,-0.1779,-0.0052,-0.1352,-0.0384,-0.2908,-0.5041,0.3428,0.1435,-1.0512,-0.1961,-0.1309,0.1288,-0.0617,-0.8057,-1.5424,-0.2428],[-1.6422,-0.4084,0.0649,-0.5413,-0.1212,-0.5481,0.5944,-0.6245,-1.9571,0.4188,-1.5371,0.2492,0.055,-0.4912,-0.268,-1.9142,-0.147,-1.1055,-0.5287,-0.2579,0.3738,-0.7115,-0.2578,-1.3054,0.1217,-1.0824,-1.0267,-0.1083,-0.7489,0.2596,-0.6452,0.0158],[-0.8396,-0.5422,-1.1188,0.0149,-0.7397,-0.802,0.2445,-0.7959,0.0055,-1.0393,-1.3589,0.1124,-0.1956,-1.3177,-1.0939,-0.3027,-0.8991,-0.1183,0.0845,-0.1986,-1.1047,0.2678,-1.3431,0.1192,-0.0265,-0.8111,-0.8589,0.1935,-0.4414,0.071,0.8812,-1.3725],[0.0773,-0.816,-1.2307,-2.5073,0.1657,-0.5964,-2.2966,-1.3258,0.7054,-0.3216,-1.6745,-3.5418,-0.2448,-1.7088,-0.9859,-2.3023,0.146,0.0083,-0.8705,-2.3015,-2.2615,-0.2763,0.7265,-1.7589,0.0946,0.0217,-0.9103,-1.0358,-0.8492,-1.2124,-2.0537,1.0431]],"b1":[-4.5313,-2.9693,-3.1602,-3.2287,-2.4353,-2.5434,-3.5429,-4.8189,-3.2041,-3.9093,-7.3503,-4.5531,-3.4103,-4.5188,-2.8945,-7.3113,-1.5332,-2.981,-2.2922,-3.2698,-3.3651,-3.8538,-4.7835,-3.4093,-2.6104,-4.0665,-4.1082,-2.59,-2.2263,-3.1153,-3.6482,-3.0718],"W2":[[-0.4637,0.1733,0.0191,1.0593,-1.0338,-0.4103,-0.9986,0.4349,-1.5901,1.3684,-0.0448,0.5865],[0.2781,0.8462,-0.6394,-0.4641,-0.8103,-1.0487,-0.9126,-0.3468,0.0663,-0.132,0.6895,1.1456],[-0.662,-0.8609,0.8293,-0.6295,0.9238,0.1906,-1.5642,-0.9498,0.6901,0.5055,-0.2528,1.2183],[-0.6375,-1.1909,-0.3198,0.2213,0.9668,-0.022,0.7539,-0.6807,0.4608,-0.5167,0.4527,-0.158],[0.1716,0.9509,0.3695,0.2836,-1.0102,-0.5862,-0.489,0.1246,-0.1555,0.1078,-0.2594,0.1971],[-1.2085,-0.6952,0.7316,-0.0657,0.5792,0.6055,0.888,-0.3768,0.9331,-0.3469,-0.0722,-0.3738],[-0.4553,-0.0892,0.2692,0.4443,-0.0999,-0.9042,-0.6896,0.7241,-0.1999,0.1726,0.7541,0.135],[-0.8707,0.4755,0.6712,-1.3921,0.825,-1.1344,1.2365,0.6254,-0.8143,0.8711,-0.913,0.3014],[-0.064,0.6767,0.3964,-0.2375,-0.1237,-0.7831,-0.5798,0.2293,-0.8007,-0.2359,0.8592,0.5878],[-1.1415,-2.0599,-1.7243,0.5231,1.1158,1.0536,1.6507,0.3048,0.2429,-0.1687,-0.5583,0.0284],[0.8428,-0.0046,-0.1666,-1.0044,-0.0524,0.2845,-1.2733,0.1853,-0.1772,-0.671,2.0109,0.3425],[-1.2348,-0.7571,-0.1443,-0.0535,0.9119,-0.6735,0.56,-0.53,0.2064,0.2759,0.4166,-0.1652],[-1.6946,0.7995,-1.297,0.2096,-0.7134,-0.1567,0.1869,0.2905,1.2016,0.6183,1.017,0.0162],[-1.6287,0.8998,-0.5266,0.0242,-0.2583,-0.2762,0.0182,-0.311,0.2003,-0.3596,1.5064,0.7959],[-1.1114,0.3365,1.5383,-0.0505,0.0183,-0.4407,0.0104,0.4325,-0.3812,0.7049,-0.0337,-0.1014],[0.56,0.2631,0.1387,-0.3326,-0.0329,-0.3996,-0.4398,-0.1204,-0.1004,-0.2322,-1.3981,2.1477],[1.115,0.7596,-1.0157,-2.3328,0.5571,0.5448,-0.4708,0.0941,0.1579,-0.6204,0.3537,0.9053],[-1.3732,0.0159,-0.0815,0.7748,0.9092,-0.7109,0.4398,-0.9325,1.0106,-0.0385,0.1396,-0.6987],[-0.5555,-0.6886,-1.3547,0.0677,1.3828,0.6437,0.7536,0.3959,0.6233,-0.4611,-0.4204,-0.6261],[-0.9087,0.6926,-0.48,0.4877,0.9504,0.4608,0.2811,-0.2696,-0.2827,-0.74,0.1218,-0.6663],[-1.2166,-0.5026,0.6362,0.1075,0.3522,0.7352,0.5603,-2.1517,-0.4323,0.081,0.6547,0.6415],[0.176,-0.1413,0.7006,0.59,-1.512,-0.8834,-1.5728,0.8983,-0.1745,1.5843,0.4891,-0.3773],[-0.3244,-0.7821,0.125,1.4458,0.8163,0.2232,-0.0046,-0.6526,0.9849,-0.2523,-0.5075,-0.4432],[-0.7211,-1.0348,0.8468,0.1906,0.427,-0.2292,-0.5579,-0.7207,0.6403,1.2778,-0.1483,-0.2719],[-1.1137,-0.6964,1.2187,0.2527,0.462,0.4195,0.0933,-0.1499,-0.1551,0.8488,-0.0906,-0.4988],[0.6722,-1.1735,-0.0038,0.0721,0.5543,-0.2523,0.4211,-0.6017,0.7902,0.5066,-0.6744,-0.4836],[-0.6017,0.589,0.3265,0.6673,-0.4447,0.8759,-0.682,0.0293,-0.2652,-0.6816,-0.6436,0.5048],[-0.3115,-0.084,0.1217,-0.2171,0.1488,-0.1662,-0.6733,0.9211,-0.5059,0.3722,0.131,0.0656],[-0.1028,-0.7583,0.0014,0.3629,0.2599,-0.0397,0.2603,-0.636,1.0225,-0.3975,0.1224,-0.3684],[1.9285,-0.3552,0.7877,-0.2286,0.1836,-0.8428,-1.131,0.2642,-0.4726,0.3701,-0.8213,0.0757],[-0.0297,0.2003,0.3649,0.8344,-0.9598,-0.3029,0.0665,0.1077,-0.8405,-0.3677,-0.1698,1.2755],[0.0301,-0.1535,0.4674,0.6827,0.9247,-0.6121,-0.2086,-1.9326,0.2541,0.3291,-0.4867,0.029]],"b2":[-2.6376,0.4335,-1.0897,-0.6178,0.2874,0.3398,0.2465,1.0206,0.4504,-0.4086,1.1735,0.802],"examples":94867},"note":"Cheater's Model: a from-scratch MLP (+ n-gram fallback) of SM64 play, trained from .m64 controller inputs. Imitation, not a replay."}