{"v":2,"trainedOn":{"files":103,"frames":2020967,"moves":94867},"tokens":["action","backward","crouch","dive","forward","forward-left","forward-right","jump","jump-forward","long_jump","turn","wait"],"unigram":{"wait":12160,"turn":17826,"backward":6464,"forward-right":5868,"forward-left":5685,"jump":14923,"long_jump":5613,"crouch":3897,"dive":3350,"forward":10436,"jump-forward":7815,"action":830},"bigram":{"wait":{"turn":3290,"wait":2447,"jump":1895,"crouch":179,"dive":79,"backward":1002,"forward":990,"jump-forward":438,"forward-left":627,"action":649,"long_jump":153,"forward-right":346},"turn":{"backward":1848,"forward-right":1472,"long_jump":761,"wait":2954,"jump":4237,"dive":719,"forward":1202,"forward-left":1384,"jump-forward":672,"turn":2141,"crouch":394,"action":33},"backward":{"turn":1847,"dive":261,"backward":672,"jump":1444,"long_jump":267,"wait":1079,"jump-forward":159,"forward":278,"forward-left":161,"action":17,"crouch":177,"forward-right":100},"forward-right":{"forward-left":307,"turn":1262,"long_jump":208,"wait":385,"backward":140,"dive":242,"jump-forward":1054,"forward-right":503,"forward":1323,"jump":308,"crouch":132,"action":3},"forward-left":{"wait":428,"forward":1155,"long_jump":377,"backward":120,"crouch":165,"forward-right":311,"turn":1192,"jump-forward":929,"dive":268,"jump":301,"forward-left":433,"action":3},"jump":{"wait":1770,"turn":4499,"backward":1606,"jump-forward":1199,"forward":151,"jump":2601,"forward-left":237,"long_jump":1947,"forward-right":150,"dive":486,"crouch":255,"action":15},"long_jump":{"crouch":1212,"turn":776,"long_jump":472,"wait":302,"backward":174,"jump":1816,"forward-left":216,"forward":240,"forward-right":116,"jump-forward":121,"dive":159,"action":5},"crouch":{"long_jump":814,"crouch":890,"backward":186,"wait":390,"jump":344,"dive":94,"forward":296,"turn":363,"jump-forward":116,"forward-left":201,"forward-right":145,"action":54},"dive":{"jump":567,"backward":224,"turn":573,"forward":570,"jump-forward":429,"forward-right":240,"wait":221,"dive":121,"action":28,"forward-left":162,"long_jump":120,"crouch":95},"forward":{"forward-left":853,"dive":643,"jump-forward":2326,"turn":1431,"wait":1146,"forward-right":1122,"forward":1562,"backward":343,"crouch":315,"long_jump":358,"jump":325,"action":7},"jump-forward":{"jump-forward":371,"turn":436,"jump":1063,"dive":261,"forward":2663,"long_jump":132,"backward":144,"forward-right":1347,"forward-left":1099,"crouch":29,"wait":263,"action":4},"action":{"action":12,"forward":6,"wait":677,"turn":16,"forward-right":16,"forward-left":5,"jump":21,"backward":5,"crouch":54,"dive":17,"long_jump":1}},"mlp":{"K":3,"hidden":24,"in":36,"W1":[[1.6829,0.4827,-0.3278,-0.2944,-0.3741,-0.0414,-1.0267,2.0105,2.8981,-0.618,0.0216,0.7428,-0.973,0.8768,-0.2776,0.1079,0.2889,0.2126,-0.1583,-1.212,-0.4265,0.245,-0.2951,0.0212],[-1.2243,0.1782,0.4179,0.2362,-1.4219,0.1264,0.6697,-0.8583,-1.6717,1.6152,0.2677,0.4892,-0.3108,-1.9255,-0.0798,-0.446,-0.0848,-0.3775,-0.408,0.6466,-0.2742,-0.4066,-1.6751,-0.0092],[0.4928,1.9406,0.1219,-1.4141,-0.4406,0.2801,0.3197,-0.4549,0.5586,0.0006,0.0914,0.2105,-0.0627,-1.5731,-1.0726,-1.6811,-1.2747,-0.1057,-0.0059,0.5031,-0.1205,-0.1974,-1.0554,-0.2278],[-0.412,-1.3412,-2.4123,0.5999,-0.5454,0.6624,-1.188,-0.3979,-1.8666,-0.4074,-0.291,-2.0114,0.8017,0.8853,-1.84,-0.1079,0.3528,-0.1298,1.0567,-0.3882,-1.5739,0.1042,1.1906,-0.0677],[-1.4809,-1.3716,-0.8665,0.341,0.5915,-0.0373,-0.9353,-0.6299,-2.0231,-0.0115,-0.2294,0.4139,0.1611,-1.0555,0.9466,0.3215,-0.0477,0.0345,-0.0622,0.9014,-1.496,-0.3104,-2.451,0.0368],[-1.1744,-1.1238,0.5499,0.0062,-0.2144,-0.4606,-1.6124,-0.6569,0.552,-1.6937,-0.7839,-0.0621,0.12,-1.577,0.4614,-1.3926,-0.5228,-0.1797,-0.621,0.1324,-0.49,-0.5563,0.9427,-0.0147],[-0.8324,-0.4185,0.4061,-0.3709,0.2976,0.2883,-1.1577,-0.6788,-0.2699,-0.3844,-0.1546,-0.1999,-0.443,-1.4952,1.3696,0.4878,-0.4817,-0.1273,-0.5777,-0.2042,-0.6234,-0.5745,0.0173,-0.1131],[-1.2889,0.4547,0.3073,-0.6314,-0.2018,-0.9974,0.6711,0.3997,0.7424,0.137,-0.6695,-0.7467,0.0703,0.4485,-1.2105,-0.4443,-0.432,-0.0043,-0.7524,-0.0295,-0.1572,0.2543,0.8998,0.0691],[-0.9593,-0.5031,-0.1698,0.1953,-0.5633,-0.8687,-0.1992,-0.8481,-1.0124,-0.007,0.3295,-0.2972,-0.0709,-1.3565,0.9158,0.0703,-0.8449,-0.0576,0.0234,-1.4926,-1.3967,0.2633,-1.7405,-0.0953],[0.5335,-0.7423,-0.2716,-0.7476,0.5349,0.0215,0.8607,-0.5006,-1.8216,-0.0184,-0.6937,-0.0674,-0.5059,1.9299,0.1786,0.4611,-0.2658,-0.1387,-1.9877,-0.27,1.5973,-2.264,0.9829,-0.081],[2.0738,0.6188,0.8078,-0.4236,0.2103,-0.3088,0.3872,-1.2404,-1.7052,-0.588,0.544,0.1706,-0.5161,0.671,0.5606,0.7422,-0.2463,0.2255,-1.9733,0.1785,-1.3857,0.124,-0.5056,-0.1187],[-0.9236,0.5653,0.1114,0.3833,-0.3595,0.7636,1.4214,-1.1635,1.661,0.1373,-0.9256,-0.0709,-0.431,-0.2547,-2.5385,-0.0247,-0.6013,-0.1473,1.7838,-2.0757,1.6892,0.1133,-0.0629,0.0158],[-0.107,-0.6767,-0.3741,-0.1505,-0.2223,-1.9172,-0.3724,0.409,3.1619,-0.3262,-0.5082,-0.1094,0.6875,0.0875,-0.0324,0.1381,-0.3272,0.0827,-0.1882,-0.0944,-0.8475,-1.1319,-0.2283,0.1907],[-0.7435,-0.7228,1.1035,-0.3946,-0.6047,0.4522,-0.8172,-0.5068,-0.1328,1.4732,-0.6309,-0.0636,-1.1805,-1.6124,-1.6941,-0.6665,-0.5173,-0.307,-0.7927,1.4186,-1.0022,-1.3884,-0.8908,-0.0187],[-0.4483,2.3859,1.1622,-0.643,-0.6972,0.4874,-0.5208,-1.7852,2.1193,0.7782,-0.293,0.3099,-0.0771,-1.9621,1.0874,1.248,0.3748,-0.1675,-0.7634,0.6249,-0.6378,-1.0507,0.0498,-0.015],[-0.5924,-0.507,-1.6417,1.6606,-0.0721,-0.0762,0.8499,-0.7684,-0.3422,0.7389,-0.0617,-0.9961,-1.3999,1.0502,-1.4425,-0.7831,-0.2923,-0.1749,-0.1437,0.7541,1.4623,0.0105,0.3339,-0.1576],[-0.761,-0.749,-0.369,-1.1909,0.3279,0.8889,-0.4945,0.1379,-1.4513,-0.3777,-0.2796,0.9179,0.1982,-1.8104,0.1406,2.7308,-0.4561,-0.312,-0.2753,-0.4301,-1.1586,1.1301,-1.6802,-0.0285],[-0.5245,-0.8426,-0.5291,0.885,0.2593,-0.4975,-0.9142,-0.4494,-1.3903,-1.4858,-0.2353,-1.1021,0.0012,-0.0279,1.5611,-0.5701,0.8173,-0.2589,2.8872,0.5127,0.0089,0.4999,-0.8909,-0.0117],[-0.4751,-0.1436,0.0212,-0.653,0.3669,0.4984,-0.652,-0.4934,-0.6098,0.6022,0.3958,0.6389,0.3532,-1.4639,1.7064,-0.7756,-0.5233,0.1366,-0.8675,-0.9911,-0.5961,1.3341,-0.1399,-0.0179],[-0.9868,-0.657,-2.3009,-1.3527,-0.315,-1.2492,2.8628,-0.5529,-0.7211,-0.6103,-0.1341,0.2742,0.4739,1.3674,-1.5236,-1.0157,-2.154,-0.3029,-0.9606,-1.2525,-1.1376,-0.7459,-0.8555,-0.1116],[-0.4388,0.3576,-0.4041,1.5214,-0.0888,-0.7419,-0.4486,-0.5588,-0.7998,-0.9896,-0.0225,-1.6665,-0.3688,-1.4157,-0.7728,-0.7758,-1.7126,-0.1845,-0.7086,-1.1949,-0.9158,1.5177,-0.7518,-0.1237],[-0.5367,-0.7283,-0.6185,-1.1484,-0.1527,0.6175,-0.1082,-0.4832,-1.6181,0.9257,-0.9593,0.2566,-0.2818,2.4643,-1.2914,-0.6602,0.4926,-0.2348,-0.4542,-0.9197,-0.7791,-1.7668,3.039,0.1673],[-0.5514,0.2128,0.999,-1.5546,-0.5621,-0.7267,-0.9886,-0.5335,-1.314,-2.3878,0.4473,0.4249,1.1097,0.2495,0.1736,-0.9253,-1.9375,-0.3203,-0.2142,-1.5053,2.4322,1.0953,-0.6222,-0.1523],[2.2765,-1.2749,0.692,1.2448,0.2823,1.405,-0.7962,2.5996,-0.4046,-0.736,-0.2963,-1.7244,-1.4348,-1.7684,-1.4658,-0.498,-0.9209,0.4278,-0.9058,0.6627,-1.6795,-1.3726,0.4087,0.1631],[1.9997,4.4219,-0.278,-0.7144,0.2114,-0.8244,0.3857,2.5302,2.0228,-0.6358,-0.1433,-0.4576,-0.2289,-0.0474,-0.2683,-0.2877,-0.5671,-0.2608,-0.0555,-0.4961,0.1653,-0.1199,0.4367,-0.0555],[-1.1643,-0.6046,-0.6619,-0.9007,-0.2826,-1.6645,0.7114,-1.6591,-1.0943,0.0552,0.0862,-1.2232,3.2543,-1.0552,-1.2681,0.3644,0.7084,0.0355,-1.7282,2.8319,-1.2501,-0.0845,0.8594,0.1117],[0.9566,-1.8343,1.1328,-1.3346,-0.4115,2.7596,1.1377,1.8642,1.752,0.7656,-0.1069,0.1859,1.4746,-0.7619,0.1852,-1.4723,-0.7637,0.3025,0.3072,-0.0458,0.582,-0.7418,-0.3325,0.0845],[-0.6445,-0.1868,1.2307,1.2707,-0.2999,-0.7575,0.0863,-0.7977,-0.3214,1.0788,-0.4032,0.1022,-1.3345,1.3689,0.8899,2.2165,-0.4663,-0.1495,0.94,0.5531,0.2512,-0.1652,0.4425,0.1505],[-1.1378,2.8808,-0.927,1.767,-0.486,0.4246,-1.0579,0.4289,-2.0606,-0.9965,-1.0935,-0.6538,-0.9558,-1.4074,1.0033,1.3818,-0.907,-0.2026,-1.3534,-0.7273,-1.0726,-0.5825,-1.3994,0.0658],[-0.9923,-0.8312,-1.0625,1.4043,-0.5632,1.563,-1.1642,-1.2926,-0.702,-0.1142,-0.3819,2.504,-1.4934,-1.162,-0.0851,-1.4738,-0.7723,-0.0755,-1.054,-0.505,-0.9497,-0.4883,1.027,0.0472],[-0.9514,1.5367,-1.4256,1.3932,-0.8468,0.6645,-1.52,-0.7869,-1.6628,0.3298,-0.0212,2.0278,-1.1887,-1.2579,-1.4166,-1.6954,-0.8955,-0.1762,-0.7832,-0.7937,-1.0165,-0.5483,-1.7587,0.0349],[-0.9287,-1.9031,-0.9036,-1.6928,-0.5551,-1.5292,-2.0294,2.8222,1.0292,2.3038,1.5558,-0.7549,0.2893,1.7782,0.2195,-0.7946,-0.8868,-0.3283,-0.4958,-1.0793,-1.2156,3.069,-1.4946,-0.0286],[-1.1557,-0.7562,-1.1919,0.2391,3.1251,-1.0413,-0.9942,-1.1453,-0.5916,-0.779,-0.8374,-0.7688,-1.7283,-1.0684,-1.1392,0.9898,-0.776,-0.1918,1.4255,-0.9282,-0.5121,-1.1646,-0.1274,0.1994],[-0.4258,-2.3306,2.7966,-0.7561,-0.5149,1.941,0.537,-0.5714,-1.1969,-0.41,-0.3141,-0.9572,0.4095,2.0329,2.5304,1.0966,0.3316,-0.0355,1.3744,0.536,-1.1406,-0.6988,-2.0914,0.0604],[1.8239,-1.7113,-1.033,-0.6259,-0.176,-1.6066,0.8493,-1.8971,-0.7693,-2.1406,0.3961,-0.9875,-0.8619,-1.8447,-1.5026,-1.5976,-0.5946,0.2745,0.0533,-1.6508,-0.6641,-1.1474,1.3638,-0.2445],[-1.458,-1.6208,0.063,-0.7104,-0.4285,-1.6091,0.601,-1.8859,1.0192,-2.1879,-0.6762,-1.3141,-0.4333,-0.993,-1.4606,-1.6246,2.6024,-0.1935,-2.0612,-1.3752,2.4903,-0.6482,0.6689,0.0656]],"b1":[-4.5298,-2.8188,-1.6834,-1.6894,-1.6389,-1.4718,-2.3552,-3.2897,-3.296,-2.1573,-2.6072,-2.0839,-2.3425,-4.045,-2.8054,-2.5437,-2.1695,-0.969,-3.3477,-2.8928,-5.1786,-2.8939,-2.8834,-0.4318],"W2":[[-0.3007,0.0737,0.4193,0.5896,-0.8753,-0.6419,-0.751,-0.0142,-0.6044,1.0967,-0.2294,1.2032],[-0.5198,-1.4131,0.8454,0.4815,-0.5433,0.2219,0.4592,-1.1079,0.791,-0.2441,-0.3677,0.5025],[-0.3878,0.4532,1.3479,-0.1594,-0.1185,-0.5417,-0.2374,0.6897,-1.1214,-0.6124,0.4749,0.0996],[-0.2412,-1.1267,-0.4882,0.4015,0.5732,-0.4213,-0.1767,-0.6008,1.0391,-0.3422,-0.2081,0.2547],[-0.9855,-0.334,-1.6379,0.3749,1.2825,1.0687,1.0287,0.873,0.1271,-0.1792,-0.9129,-0.3156],[-0.717,-0.6397,0.8335,-0.0487,0.3882,-0.3913,0.0098,-0.1838,0.1321,1.1293,-0.3672,0.2012],[0.2293,0.1713,0.5147,0.3662,-0.5164,0.2856,-0.4428,1.3136,-0.564,-0.5071,0.0476,-0.4302],[0.1634,0.6437,-0.8458,0.1579,-1.1521,-1.0396,-0.9238,0.1473,-0.0885,0.0332,0.6324,1.5282],[2.0539,-0.8617,0.8382,-0.5249,-0.5507,-0.6159,-0.6362,0.6192,-0.9879,-0.0504,-0.2728,0.0208],[-0.3363,0.9157,0.651,0.3443,-1.2158,-1.0878,-0.5555,-0.0534,-0.1231,0.6053,0.2638,0.5339],[-0.5051,0.4376,-0.5801,0.0439,-0.7101,-0.8513,-0.5422,0.4113,0.8579,0.559,0.8669,-0.1852],[-1.2498,-1.3461,0.2664,0.0366,1.0918,0.0595,0.2573,-0.5819,0.5817,-0.3594,0.703,-0.0719],[0.1936,0.3549,0.2168,0.3438,-0.0874,-1.1053,-1.2914,0.2248,-0.6808,-0.1851,0.8976,0.0763],[0.1241,-0.4708,0.6776,1.1811,-1.5993,-0.6182,-1.9291,1.1586,0.1437,1.9051,0.7864,-0.3109],[-1.4263,-0.2762,1.3514,-0.0303,-0.1447,0.3255,0.9609,-0.7509,0.4526,0.0996,-0.0145,-0.267],[-0.9582,-0.3079,0.2728,0.7561,0.8035,-0.5649,0.1561,-0.7482,0.4278,-0.6565,0.239,-0.2418],[1.0322,0.4751,-0.5832,-1.41,0.0984,-0.0356,-0.7526,0.0111,-0.079,-0.772,0.015,0.9403],[0.0107,0.1746,0.0125,0.1373,-0.1748,0.0335,0.0566,0.1804,-0.3381,0.3399,-0.3708,0.4832],[-0.8953,0.1064,0.2939,0.348,0.317,1.204,-0.5763,0.0507,-0.0435,-0.7102,-0.6235,0.8036],[-0.8348,0.9279,0.6734,0.6274,-1.0237,-0.8982,-0.1331,0.6124,-0.5473,0.2865,0.6833,1.2276],[1.0018,-0.0033,0.0369,-0.2969,0.0682,0.2387,-0.8513,0.1071,-1.2481,-0.5369,1.4277,0.3466],[-1.8884,0.3552,-0.6577,0.3357,-0.7735,-0.4137,-0.8849,0.0335,1.3018,0.1045,1.1569,0.5474],[-0.1165,-0.1274,-0.1747,0.755,-1.1208,0.0674,-0.6379,1.0485,-0.8305,0.9586,-0.6624,0.7459],[-0.1445,0.0335,-0.0764,0.0286,-0.1298,-0.1557,-0.1512,0.2967,0.1362,-0.2884,-0.2469,-0.2098]],"b2":[-2.6992,0.294,-0.6723,-0.2843,0.4341,0.3302,0.4868,1.0643,0.1416,-0.4139,0.6336,0.6851],"examples":94867},"note":"Cheater's Model: a from-scratch MLP (+ n-gram fallback) of SM64 play, trained from .m64 controller inputs. Imitation, not a replay."}