{"v":2,"trainedOn":{"files":103,"frames":2020967,"moves":94867},"tokens":["action","backward","crouch","dive","forward","forward-left","forward-right","jump","jump-forward","long_jump","turn","wait"],"unigram":{"wait":12160,"turn":17826,"backward":6464,"forward-right":5868,"forward-left":5685,"jump":14923,"long_jump":5613,"crouch":3897,"dive":3350,"forward":10436,"jump-forward":7815,"action":830},"bigram":{"wait":{"turn":3290,"wait":2447,"jump":1895,"crouch":179,"dive":79,"backward":1002,"forward":990,"jump-forward":438,"forward-left":627,"action":649,"long_jump":153,"forward-right":346},"turn":{"backward":1848,"forward-right":1472,"long_jump":761,"wait":2954,"jump":4237,"dive":719,"forward":1202,"forward-left":1384,"jump-forward":672,"turn":2141,"crouch":394,"action":33},"backward":{"turn":1847,"dive":261,"backward":672,"jump":1444,"long_jump":267,"wait":1079,"jump-forward":159,"forward":278,"forward-left":161,"action":17,"crouch":177,"forward-right":100},"forward-right":{"forward-left":307,"turn":1262,"long_jump":208,"wait":385,"backward":140,"dive":242,"jump-forward":1054,"forward-right":503,"forward":1323,"jump":308,"crouch":132,"action":3},"forward-left":{"wait":428,"forward":1155,"long_jump":377,"backward":120,"crouch":165,"forward-right":311,"turn":1192,"jump-forward":929,"dive":268,"jump":301,"forward-left":433,"action":3},"jump":{"wait":1770,"turn":4499,"backward":1606,"jump-forward":1199,"forward":151,"jump":2601,"forward-left":237,"long_jump":1947,"forward-right":150,"dive":486,"crouch":255,"action":15},"long_jump":{"crouch":1212,"turn":776,"long_jump":472,"wait":302,"backward":174,"jump":1816,"forward-left":216,"forward":240,"forward-right":116,"jump-forward":121,"dive":159,"action":5},"crouch":{"long_jump":814,"crouch":890,"backward":186,"wait":390,"jump":344,"dive":94,"forward":296,"turn":363,"jump-forward":116,"forward-left":201,"forward-right":145,"action":54},"dive":{"jump":567,"backward":224,"turn":573,"forward":570,"jump-forward":429,"forward-right":240,"wait":221,"dive":121,"action":28,"forward-left":162,"long_jump":120,"crouch":95},"forward":{"forward-left":853,"dive":643,"jump-forward":2326,"turn":1431,"wait":1146,"forward-right":1122,"forward":1562,"backward":343,"crouch":315,"long_jump":358,"jump":325,"action":7},"jump-forward":{"jump-forward":371,"turn":436,"jump":1063,"dive":261,"forward":2663,"long_jump":132,"backward":144,"forward-right":1347,"forward-left":1099,"crouch":29,"wait":263,"action":4},"action":{"action":12,"forward":6,"wait":677,"turn":16,"forward-right":16,"forward-left":5,"jump":21,"backward":5,"crouch":54,"dive":17,"long_jump":1}},"mlp":{"K":3,"hidden":24,"in":36,"W1":[[0.5114,-1.0661,-0.1784,-0.7591,-0.344,0.0201,1.2962,0.7337,1.1487,1.7554,1.3036,1.1286,2.4947,-0.1811,0.4402,1.6937,-0.2035,0.2058,-0.3967,-1.6054,-0.195,-0.1535,0.0454,-0.8878],[-0.3179,0.5805,0.3846,-1.0918,-0.9086,-0.8964,0.1618,-1.8933,0.0912,0.4618,-1.2393,-0.2286,0.5348,0.0499,0.0093,-0.6862,0.1799,-0.9743,1.4044,-0.0545,0.1427,0.0102,-0.157,-1.4127],[-1.0067,0.138,0.2036,0.1447,-0.1327,-0.1666,0.4483,-2.0067,0.0224,-0.9551,-0.2322,-0.1331,-1.3873,0.0642,-0.381,-0.6509,-0.0655,-0.726,-0.0553,-0.0885,-0.2137,0.1543,0.3252,2.1327],[-0.1425,-0.6375,0.3698,-0.3159,-1.6968,0.6333,-2.6397,0.7926,-1.8026,-0.5438,-0.3241,-1.5716,-0.1659,0.0613,-0.6629,-1.7338,0.0844,-0.8718,-0.2654,0.2331,0.4462,0.3521,0.4428,-1.4231],[-0.2473,-0.1053,-0.1951,0.2561,-1.6625,0.5175,-0.5235,-0.6023,0.2639,0.2162,-1.403,-0.0354,-0.6718,-0.0535,-0.916,-0.532,-0.071,1.8857,-0.0982,0.341,0.4949,0.0066,-0.2697,-1.2288],[0.1554,-1.3059,-2.4834,-0.3664,0.2438,-0.773,0.4446,-0.939,0.3671,0.133,-1.0455,-0.5004,-0.1866,-0.217,-0.39,-1.2558,-0.0791,-1.5984,-2.2147,-0.7091,-0.49,-0.0032,0.4872,-0.9599],[-0.8164,-1.7949,-0.0215,0.1464,-0.0726,-0.1938,-0.0002,-1.6771,0.2365,-1.5787,-0.8021,-0.5093,-0.7491,-0.1898,0.0191,0.4645,-0.0723,-1.4197,-0.5037,0.2126,0.1776,-1.8693,0.0308,-1.0244],[-0.9712,1.191,-1.0651,0.0322,-1.0398,-0.7536,-0.3068,1.0615,-0.9116,-0.3876,-1.3003,-0.2951,-0.4188,-0.2879,-0.5974,0.8004,0.0756,-1.4041,0.0076,-0.8575,-0.0224,0.5504,0.0435,1.3722],[-0.6548,-0.2492,-0.1725,-0.3058,-1.3078,0.2699,-0.0943,-1.3136,-0.2514,-0.104,-0.9958,-0.1588,-0.6899,0.0813,0.9194,0.0762,-0.1221,1.1438,-0.351,0.0314,-0.1281,-0.1433,0.0879,-0.3942],[-1.7787,0.7724,-0.7013,0.1417,1.869,-1.5992,-1.2207,2.3738,-0.2791,0.3197,2.7199,0.114,-0.8985,0.133,-0.4884,-0.2375,-0.2116,-0.1387,-0.0065,-0.2853,-2.0476,1.2216,-1.7675,0.1658],[-0.1087,0.1762,0.4204,-0.2752,-1.1906,-1.1883,0.7389,0.8196,0.1022,-0.0204,1.7954,-0.5611,-0.365,-0.0802,0.6799,-0.5792,0.2134,-0.9653,-0.0025,0.1088,-1.3142,-1.6219,-0.3018,-1.0462],[-0.4673,1.2464,0.3028,-0.3532,2.3722,1.3053,-0.198,0.024,-0.1103,-0.5645,-1.3697,0.4594,0.3391,-0.2586,-0.721,-2.8895,-0.052,1.3984,0.1525,0.628,0.2693,-2.5813,-0.2458,1.6884],[-0.2386,-0.3708,0.0205,-0.7065,-0.9621,-0.1346,-0.7146,-0.0853,-0.2491,-0.0888,-0.0771,-1.6143,0.0197,-0.034,-0.4594,-0.2185,0.0354,-0.2378,-0.4328,-0.7353,0.9775,1.2098,1.6811,3.7292],[-0.8679,-1.4736,-0.8961,-0.264,-1.0739,0.8083,0.2419,-1.4316,-0.5887,-0.5873,-1.0031,1.5376,-1.2282,-0.1066,-1.607,-2.0028,0.0438,-0.9944,2.5012,-0.2129,-1.2068,-1.5136,-1.2217,-0.0317],[-0.3614,-1.2034,0.2924,-0.9697,0.9257,-0.4236,2.0589,-1.0157,0.028,1.4534,-0.4155,-0.1628,1.1812,-0.1101,-1.189,-3.4504,0.1919,-1.1628,-0.769,0.0355,-0.6051,0.208,-0.5777,-2.1229],[0.5592,1.093,-0.5438,0.199,1.3851,-0.8086,-1.9463,1.6266,-0.199,-0.4486,-0.9088,-1.1505,-0.2593,0.0226,-0.1615,0.426,-0.1573,3.1019,0.6652,0.0619,-0.6687,-0.9429,1.2793,-1.4992],[-0.4376,-1.2257,3.1819,1.7321,-1.2525,-1.0229,0.3525,-1.8172,0.8856,-0.8859,-1.0291,-1.3547,-0.888,0.0064,1.0573,0.69,-0.0425,-0.6795,-0.0155,0.3645,0.4103,1.9041,-1.1712,0.1506],[0.4936,-0.9129,-1.2804,-0.4481,-0.4942,2.9363,0.7459,0.4174,-0.7938,-0.8791,-0.9808,-1.2528,0.4115,0.0879,0.3218,-0.5328,-0.1177,-1.3931,-1.1904,-0.1104,-0.8902,-0.1116,1.2424,-1.7631],[-0.1686,-0.6133,-1.0856,-0.1437,-0.5347,-0.9516,0.5343,-1.5918,0.6653,2.4534,-0.8619,-0.3469,-0.2262,-0.0017,0.9564,0.2525,0.1138,-1.1706,0.4003,0.4187,0.6833,-0.8668,0.2094,-1.4666],[-0.9397,2.4445,-1.1593,-1.1731,-1.773,-0.9031,-2.2676,1.4995,0.4517,-0.6581,-1.0186,0.2008,-2.457,-0.1819,-1.0989,-1.3306,-0.2109,-0.8101,-0.0428,-0.6336,-0.176,-0.9018,-1.0443,0.478],[-0.7739,-0.9434,-0.0026,0.3914,-0.823,-0.7018,0.0176,-1.5152,-0.3052,-0.6443,-0.3306,0.5017,-0.6944,-0.1486,2.0444,0.0519,0.0278,-0.9884,-0.8401,-1.2603,-1.0893,-0.0383,1.0388,-0.1855],[-0.9147,1.4356,-0.7078,-0.1731,-0.4446,-0.5301,-1.1412,2.2515,-0.1637,0.1313,1.237,-0.305,0.3243,0.1464,-1.8808,-0.6722,-0.1081,0.4383,0.1394,0.504,-0.8916,1.0221,-1.1861,-0.6373],[-1.0835,0.5488,-1.1831,-0.6112,2.4837,-0.5026,0.5599,0.0921,0.6474,-0.954,-0.9176,-1.4926,-2.324,-0.0145,-0.4052,0.7422,-0.1008,0.2635,-1.6411,-0.2889,1.998,-1.6599,0.0627,-0.3503],[1.4921,-0.1417,-0.3628,0.1282,-1.5729,-0.9105,0.6748,-1.7446,-1.8842,-1.3231,2.5902,2.0212,0.2114,0.131,-0.129,3.0937,-0.0275,-0.2046,-0.6628,-0.2408,-1.0424,-0.905,-1.0962,-0.0643],[1.1363,0.2226,-0.1309,-0.0678,-0.2847,-0.2422,1.6387,0.1584,-0.4565,2.0738,0.4995,-0.5613,-0.4841,-0.1531,-0.1955,4.2889,-0.1299,-0.1593,-0.7163,0.2511,-0.0655,-0.1585,-0.076,-0.494],[-1.3817,0.8353,-0.9478,-0.5596,-1.1911,-1.568,-0.0219,-1.0946,-0.6191,-1.3024,-0.4557,-1.6161,-0.8024,0.1247,0.5249,-1.9925,0.0508,0.6728,0.8011,-0.4958,2.1097,-0.6747,-1.1375,-0.834],[0.7681,0.2594,1.0149,-0.548,0.5589,0.2926,0.5311,-0.878,0.9395,-0.6685,0.6825,-0.9508,0.7922,-0.2127,0.3479,0.855,-0.0098,2.0959,1.6434,2.74,0.0012,-0.4359,-1.1758,1.5722],[0.4024,0.2639,1.6143,-0.0344,0.5685,1.2524,-0.4473,1.6263,0.3368,0.3592,-0.7646,-0.6066,-0.12,0.0254,-0.9485,-0.9604,-0.0355,-1.7414,1.6703,0.2593,0.7061,2.7769,1.4227,-0.3442],[-0.9201,-1.1631,1.9869,-0.3163,-1.0395,-1.4098,-0.2825,-1.6566,-1.0267,-0.3574,-1.2434,1.4075,-0.5863,-0.2293,-0.935,0.5828,-0.0358,0.1933,-1.4375,-0.5259,-1.2952,-0.9294,1.9702,-0.963],[-0.6575,-0.7437,-1.4909,-0.3102,-0.8482,-1.7525,-1.4308,0.1649,2.005,-1.8283,-0.1151,1.9617,-0.9263,0.1745,-1.1058,-1.3083,-0.0239,-0.755,-0.2051,-0.5012,-1.1928,-0.8171,1.0995,-0.2449],[-1.0073,-1.5864,-1.4883,-0.3826,-0.8818,-0.6492,-0.7887,-1.3997,2.0977,-1.6479,-1.0481,1.9778,-0.8906,0.0039,-0.7598,-1.4896,-0.0728,-1.5795,-1.211,-0.3544,-1.2596,-0.2564,0.8395,-2.0869],[1.2837,-2.0922,-1.0763,-0.255,-1.0396,-0.7612,0.7251,2.1998,-0.1565,-0.3111,-1.2853,-1.6384,0.2287,0.1204,3.0563,2.3057,-0.2531,-1.8364,1.5216,-0.4013,2.3598,-0.8969,-1.3051,-1.6715],[-0.3471,-0.7302,-1.2113,3.4011,-0.8491,1.5522,-0.5691,-1.0541,-0.8817,0.9347,-0.8617,-1.4051,-1.1329,-0.131,-0.7818,-1.2976,-0.159,0.6176,-1.608,-0.2641,-1.0936,-0.0018,-0.2224,-1.4994],[-0.5179,1.515,1.8408,-0.7633,-1.0616,1.6919,2.1263,1.6492,-1.0519,1.2472,-0.5595,1.2763,-1.3094,-0.1751,-0.4427,-0.8342,0.0088,0.9862,1.12,-0.2833,-0.6396,0.3588,0.7405,2.7967],[-0.6775,0.7415,-1.6242,-0.509,-1.2372,0.9895,-1.6441,-1.8618,-1.5262,0.392,1.9116,-1.711,-1.1606,-0.2722,-1.0234,-1.6741,-0.1371,-0.138,-2.0676,-0.7322,-1.3645,-1.2184,-1.0729,-0.5697],[-1.4171,0.5067,-1.2203,-0.6841,2.5451,-2.0438,-1.429,-0.6901,-1.2123,-0.5534,-1.2787,-1.3505,3.2137,0.111,-0.7784,-2.0106,-0.1821,-1.5112,-2.145,-0.574,-0.7973,-0.8675,-1.2964,0.2403]],"b1":[-3.8899,-1.8304,-2.8821,-1.9292,-4.5066,-2.9959,-1.5374,-3.1827,-1.3448,-1.9975,-4.0245,-2.6101,-1.6724,-0.4586,-2.7583,-3.1083,-0.475,-3.4051,-2.4875,-1.6662,-2.4199,-3.1123,-1.2169,-3.9503],"W2":[[-0.0766,1.3471,0.1185,-1.0735,-0.9365,-0.3725,-1.3231,-0.0811,0.5993,0.6084,0.9601,0.8515],[0.0532,0.0164,0.2817,0.2715,-0.0745,-0.2798,-1.0044,1.2361,-0.809,-0.2591,0.1175,0.278],[-1.5919,-0.0231,0.6607,0.7875,1.4916,-0.4227,0.079,-1.6109,0.7631,-0.0648,-0.2985,0.0197],[-0.9691,-0.6957,-1.5509,0.3899,1.8887,0.4472,0.8775,0.0409,0.293,-0.0939,-0.057,-0.596],[1.3258,-0.0913,0.1927,-0.2603,-0.3917,0.078,-0.9307,-0.2455,-1.1514,-0.3237,1.4962,-0.3635],[-0.9028,-0.0599,0.5235,0.243,0.0934,1.4469,-0.037,-0.0925,-0.1933,-0.8925,-0.5868,0.6674],[-0.006,0.4168,1.175,-0.4583,-0.5501,-0.2949,-0.5724,0.057,-0.0138,-0.0807,0.1394,0.2889],[0.1537,-0.446,0.9171,0.8301,-1.4189,-0.9278,-1.9266,1.108,-0.2455,1.8279,1.0156,-0.607],[-0.7339,-0.7287,-0.2188,0.3949,1.1388,0.0319,0.2431,-0.6044,0.6724,0.0542,0.7257,0.0604],[-0.0188,-0.2195,0.4591,0.119,-0.2677,0.0828,0.7095,-0.4081,0.3543,0.0095,-0.3219,-0.4572],[-0.423,0.1292,-0.1559,0.1101,-0.7543,-0.3107,-0.2818,-0.2627,-0.4689,0.8976,0.1231,1.6283],[-0.9285,-0.5088,0.836,0.6667,0.3527,0.1681,-0.3796,-1.0672,0.8415,1.0935,-0.5032,0.0043],[1.6539,0.0449,-0.0252,-1.2456,0.2845,0.4783,-0.2057,-0.4792,-0.2355,-0.6876,-0.0954,0.7531],[-0.1432,0.0697,-0.2415,0.0283,-0.1091,0.1002,0.1159,0.043,-0.2298,0.1287,0.115,-0.2006],[-1.2399,1.0327,-0.9476,-0.1995,-0.5671,-0.5069,-0.3045,0.263,1.7848,-0.2826,1.2206,0.5602],[0.9093,0.4831,-0.5915,0.2753,-0.8106,-1.0758,-0.7083,-0.4466,0.0118,0.4674,0.4224,1.5449],[0.1391,0.1778,0.0183,-0.136,0.1848,0.0485,0.0298,-0.173,-0.2806,-0.069,0.2502,0.1852],[-1.2734,-0.6287,-0.3229,1.5674,0.8819,0.0697,-0.3119,-0.0093,-0.1958,0.6614,-0.3589,-0.1928],[-0.0145,1.4292,0.3661,0.2018,-1.7356,-0.6852,-0.4984,0.0897,0.202,0.0276,0.0097,0.2624],[0.3697,-0.6131,0.9497,-0.6798,0.0571,-0.1847,-0.1609,-0.1693,-0.4722,0.8547,-0.4755,-0.0768],[0.3825,-0.115,-0.6587,0.1198,-0.27,-0.3944,-0.7627,-0.2876,0.2244,-0.0363,0.5715,-0.0605],[1.3696,-2.0097,-0.0513,0.1679,1.076,-0.1462,0.0734,0.3585,1.1076,-0.0687,-1.2344,-0.6722],[-0.3791,-0.5674,0.0889,0.4931,0.4656,0.2077,0.6328,-0.9449,0.8151,-0.4455,0.0135,-0.3623],[2.0295,-1.266,0.7078,-0.0572,0.4485,-0.6475,-0.2469,0.6271,-1.0102,0.8047,0.2816,-0.4804]],"b2":[-2.9696,0.4905,-0.7811,-0.772,0.4376,0.8492,0.0755,1.1002,0.312,-0.2876,1.157,0.3883],"examples":94867},"note":"Cheater's Model: a from-scratch MLP (+ n-gram fallback) of SM64 play, trained from .m64 controller inputs. Imitation, not a replay."}