{"v":2,"trainedOn":{"files":103,"frames":2020967,"moves":94867},"tokens":["action","backward","crouch","dive","forward","forward-left","forward-right","jump","jump-forward","long_jump","turn","wait"],"unigram":{"wait":12160,"turn":17826,"backward":6464,"forward-right":5868,"forward-left":5685,"jump":14923,"long_jump":5613,"crouch":3897,"dive":3350,"forward":10436,"jump-forward":7815,"action":830},"bigram":{"wait":{"turn":3290,"wait":2447,"jump":1895,"crouch":179,"dive":79,"backward":1002,"forward":990,"jump-forward":438,"forward-left":627,"action":649,"long_jump":153,"forward-right":346},"turn":{"backward":1848,"forward-right":1472,"long_jump":761,"wait":2954,"jump":4237,"dive":719,"forward":1202,"forward-left":1384,"jump-forward":672,"turn":2141,"crouch":394,"action":33},"backward":{"turn":1847,"dive":261,"backward":672,"jump":1444,"long_jump":267,"wait":1079,"jump-forward":159,"forward":278,"forward-left":161,"action":17,"crouch":177,"forward-right":100},"forward-right":{"forward-left":307,"turn":1262,"long_jump":208,"wait":385,"backward":140,"dive":242,"jump-forward":1054,"forward-right":503,"forward":1323,"jump":308,"crouch":132,"action":3},"forward-left":{"wait":428,"forward":1155,"long_jump":377,"backward":120,"crouch":165,"forward-right":311,"turn":1192,"jump-forward":929,"dive":268,"jump":301,"forward-left":433,"action":3},"jump":{"wait":1770,"turn":4499,"backward":1606,"jump-forward":1199,"forward":151,"jump":2601,"forward-left":237,"long_jump":1947,"forward-right":150,"dive":486,"crouch":255,"action":15},"long_jump":{"crouch":1212,"turn":776,"long_jump":472,"wait":302,"backward":174,"jump":1816,"forward-left":216,"forward":240,"forward-right":116,"jump-forward":121,"dive":159,"action":5},"crouch":{"long_jump":814,"crouch":890,"backward":186,"wait":390,"jump":344,"dive":94,"forward":296,"turn":363,"jump-forward":116,"forward-left":201,"forward-right":145,"action":54},"dive":{"jump":567,"backward":224,"turn":573,"forward":570,"jump-forward":429,"forward-right":240,"wait":221,"dive":121,"action":28,"forward-left":162,"long_jump":120,"crouch":95},"forward":{"forward-left":853,"dive":643,"jump-forward":2326,"turn":1431,"wait":1146,"forward-right":1122,"forward":1562,"backward":343,"crouch":315,"long_jump":358,"jump":325,"action":7},"jump-forward":{"jump-forward":371,"turn":436,"jump":1063,"dive":261,"forward":2663,"long_jump":132,"backward":144,"forward-right":1347,"forward-left":1099,"crouch":29,"wait":263,"action":4},"action":{"action":12,"forward":6,"wait":677,"turn":16,"forward-right":16,"forward-left":5,"jump":21,"backward":5,"crouch":54,"dive":17,"long_jump":1}},"similar":{"action":[["wait",0.541],["turn",0.501],["backward",0.438]],"backward":[["wait",0.961],["jump",0.95],["turn",0.894]],"crouch":[["long_jump",0.77],["jump",0.632],["turn",0.612]],"dive":[["forward-right",0.919],["forward-left",0.918],["forward",0.858]],"forward":[["forward-right",0.938],["forward-left",0.935],["dive",0.858]],"forward-left":[["forward-right",0.989],["forward",0.935],["dive",0.918]],"forward-right":[["forward-left",0.989],["forward",0.938],["dive",0.919]],"jump":[["backward",0.95],["wait",0.896],["turn",0.806]],"jump-forward":[["dive",0.788],["forward-right",0.772],["forward-left",0.75]],"long_jump":[["turn",0.788],["crouch",0.77],["backward",0.759]],"turn":[["backward",0.894],["wait",0.868],["dive",0.85]],"wait":[["backward",0.961],["jump",0.896],["turn",0.868]]},"mlp":{"K":3,"hidden":24,"in":36,"W1":[[2.058,0.8073,-0.8013,2.5433,-0.1281,0.971,-0.3766,-0.1734,0.0906,-0.1012,0.6344,-0.3112,-0.8111,-0.6206,2.2457,0.0623,0.9214,-0.4085,-0.2605,-0.3401,0.9214,-0.5398,1.3951,0.7866],[0.1151,0.4787,1.8433,0.6408,-1.899,-1.843,-0.6866,-0.2247,-1.102,0.5802,-0.4122,0.0469,1.0186,-1.4794,-1.3014,-0.4899,-1.7152,-1.0258,0.0359,1.8315,-0.5993,-1.2733,0.3144,0.0377],[-0.0302,0.3865,-0.778,-0.6576,-1.8554,0.2573,0.2981,-0.4701,0.0743,1.6356,-0.3749,-1.3981,0.2197,1.0189,-1.0477,-0.9716,-0.3329,-0.1262,0.2793,0.7599,-0.4139,-0.2336,-0.2074,0.2791],[-2.6972,-2.1837,-0.3442,-1.5597,0.6221,0.9991,0.4173,-0.1573,0.3688,-0.7662,0.4511,0.362,-0.3918,0.1961,-1.4588,0.21,-1.6785,-1.2913,-0.6369,-0.3487,-0.9595,-0.243,-1.1877,0.6639],[-0.1723,0.5176,-1.2788,0.2907,-0.5629,-1.5893,-0.1242,-0.4601,-0.223,1.2561,0.1189,-0.2291,0.3071,0.0838,-1.055,-0.2869,-1.3922,-1.6883,-1.9005,-0.4887,-0.5734,0.1632,-0.726,0.0959],[-0.5008,-0.2568,-1.3712,0.992,0.6104,0.6852,-0.4202,0.1689,-0.4524,0.9262,0.1884,-0.1712,0.1929,-1.2165,-1.2291,-0.6308,-0.7852,-0.2457,-0.0278,-2.3887,-0.7066,-0.2557,-0.2821,-0.3011],[-1.6433,0.0532,-1.0679,-0.0992,-1.4625,-0.829,-0.5478,0.0295,-0.4677,0.7725,0.4415,-0.0069,0.8085,-0.422,-0.8629,-0.3433,-0.9848,-0.4652,-0.073,-0.0221,-0.475,0.0776,-0.2381,-0.1631],[0.7227,-0.6201,1.6683,0.1824,0.8853,0.5838,-0.7345,0.3562,-0.2577,-1.7872,0.0594,-0.9162,-2.2615,-1.2923,0.088,-0.3485,0.6068,0.2214,-0.3715,0.1217,-0.1404,-0.184,0.2671,-0.6221],[-1.0696,-0.7711,-0.9957,-0.9866,-1.7605,-0.3469,0.2507,-0.4725,-0.5,-0.5096,0.2745,-0.1551,0.1123,0.0615,-0.5067,-0.2231,-1.0823,-1.0866,1.0892,-0.7395,-0.3725,-0.1637,-1.427,-0.1894],[-0.6557,0.1364,1.7451,-1.2813,1.6013,0.9071,-1.7225,-0.3272,0.7329,-1.0672,-1.7415,-1.1116,0.4618,-1.4449,-0.3835,0.2546,0.9927,1.3377,-0.1236,-0.459,-0.1846,0.3821,-0.7733,-1.633],[-2.9238,-0.0242,-1.0401,-0.5961,0.4396,-1.1301,-1.0691,-0.6431,0.037,-0.432,-2.0124,-0.0085,0.2975,0.6699,1.1008,0.1802,0.6373,-1.3181,1.5447,-0.7427,-0.2019,-0.0501,0.2165,-0.4035],[0.6405,-0.4326,-0.5906,-1.4328,0.4744,-1.3298,1.5577,-0.1698,-0.5931,-2.6102,0.0199,-1.121,-2.7613,1.1043,-1.1192,0.2361,0.6783,1.8446,-0.4776,-0.1387,0.7023,0.2337,0.4459,-0.3423],[2.1082,0.2426,-0.3653,0.1109,-0.3143,0.7123,-0.0447,0.2944,-0.0708,-1.2342,-0.1327,-2.2393,-1.402,-0.5457,0.2662,0.3043,-0.1459,-0.8055,-0.4628,-0.0264,-1.5557,-0.1407,2.0693,1.4376],[-2.0005,-0.2226,-1.2196,0.9029,-1.9344,-0.9803,1.2342,-0.3068,-0.5787,-0.2194,-1.045,0.042,-1.4663,-0.9737,-0.8462,-0.9467,-1.413,-1.0629,-1.8558,2.1385,0.4695,-0.568,0.7849,-1.1275],[0.2615,-0.2172,-1.1933,-0.2622,0.2442,-1.3388,-0.351,0.0254,-1.1614,1.2439,-0.7542,0.7455,0.2048,-0.4455,-1.6176,1.4116,-1.3681,-0.6607,-0.9435,-0.1364,1.0425,-0.318,1.6612,-0.949],[0.2628,-0.4756,1.017,0.1602,1.18,0.2196,-0.1974,-0.2392,1.1766,0.5878,-0.9079,-0.8274,-1.0057,-0.2054,-0.972,-0.9609,0.6996,1.7027,0.0318,0.5363,-1.2073,-0.1366,-1.7591,1.7473],[-1.8871,0.8846,-1.2404,0.1422,-1.6175,-0.3421,-1.2615,-0.4406,-0.9167,-0.3253,0.5207,-0.7811,0.5227,-0.5117,-0.5177,2.7839,-1.324,-1.0334,-0.375,-0.8291,-0.4913,0.1128,0.9858,-1.4991],[-1.7069,-0.4085,0.3349,0.6672,0.2812,1.2713,3.0116,-0.3463,0.4541,0.3078,-0.3315,0.5964,1.9547,-0.5239,-0.378,-0.9475,-0.2288,-0.3119,0.2368,-1.2114,-1.6815,0.2177,-2.6377,0.9025],[-1.1027,0.6749,-0.9786,1.4228,-1.2677,-0.586,-0.3205,-0.1603,-0.5814,-0.1947,-0.3318,-0.317,1.539,-0.2952,-0.6156,-0.9234,-1.0113,-0.2092,1.1273,0.358,-0.9152,0.9969,0.8842,1.1642],[-0.5133,0.7288,1.7578,-1.3069,1.0465,1.4427,-0.861,-0.4653,0.2708,-1.1452,0.4585,-2.552,-1.8441,2.2114,-0.6871,-0.8142,1.4171,-1.7301,-2.0219,-0.2974,-0.4998,-0.487,-2.1933,-1.0769],[-0.8922,-0.6513,-1.5614,-0.7425,-1.4022,-1.2814,-0.5778,-0.5598,-0.4267,-1.2173,-0.8259,-0.52,-0.4983,-0.6213,-0.6585,-0.7991,-0.7091,-0.6891,2.3701,-1.3056,-0.0032,-0.2459,0.1977,1.8268],[-0.7052,0.0812,0.9818,-1.5349,2.1747,1.2286,-0.7707,0.2252,0.7434,-1.2898,-0.6944,0.8409,0.6306,-0.1013,-0.5353,-0.7842,-0.1439,-0.5099,-2.1073,0.4441,0.9108,-0.0701,-1.6896,-1.3097],[-1.3651,0.4448,-0.4162,-0.0732,0.1041,-1.537,-1.2324,-0.5409,0.0879,-0.396,2.0781,-0.8508,0.976,-0.3736,-1.0274,-1.0338,1.3415,2.7653,-0.1643,-1.8378,-1.2371,0.0776,0.1494,-1.1325],[-0.2002,-1.6813,-0.0094,-1.1624,-2.1377,-0.6757,-0.8135,0.9116,-1.2321,1.1647,-1.3047,-0.7643,-1.6342,-0.7242,3.4777,-0.3987,-1.2155,-1.4096,0.8216,-0.4023,1.4902,0.1786,0.4461,-1.5236],[0.3167,-0.4396,0.0176,-0.3675,0.0518,-0.1287,-0.1348,-0.0781,-0.2329,4.2286,-0.3034,0.261,-0.5449,-0.6348,2.5623,-0.3226,-0.216,-0.3009,-0.28,-0.5244,-0.5955,-0.2745,0.9003,0.9637],[0.6326,-0.9528,1.0957,-0.3391,-0.5275,-0.6724,-1.5452,-0.4311,-0.4776,1.6101,2.0384,0.3518,-1.2184,0.8949,-2.4988,-1.1883,-0.76,-0.7864,-0.471,0.5866,-1.575,-0.7985,-0.6586,-1.3786],[1.7644,-0.2556,0.9049,-0.6719,0.9387,-0.5933,0.686,-0.2827,-0.7459,0.8268,-0.0569,-0.8914,2.625,0.753,1.0744,-0.3521,-0.9259,-0.0711,-0.0677,1.1066,-0.421,-0.5834,1.7793,-1.3123],[-1.1299,0.4212,0.2475,-0.1543,0.3443,1.4957,1.0349,-0.3118,0.6579,-0.9006,0.489,-0.7858,-0.7128,-0.8131,-1.0515,2.3917,0.3324,0.7415,-0.7311,2.0676,-0.699,-0.0795,-0.6391,1.2944],[-0.9475,-0.8846,-0.9213,-0.6648,-1.9056,-0.2414,-1.4561,-0.3882,-0.8217,-1.3454,-1.256,-0.8518,1.8577,-1.1327,-0.6646,1.4109,-0.5576,-0.4748,-0.8692,-1.4798,1.5349,-0.709,-1.7184,1.6595],[-1.1237,2.5415,-0.5888,0.0688,0.2291,-0.6529,-1.4357,-0.4954,-0.369,-0.9418,-1.0705,-0.7637,0.1998,-0.5986,-1.3037,-1.6113,-0.6753,-0.9921,-0.8489,0.0321,2.7641,-0.3677,-0.9351,0.5529],[-1.5178,2.4452,-1.5106,-0.6833,-1.3146,-0.776,-0.6351,-0.4422,-0.7105,-1.3593,-1.0728,-0.6543,-1.2748,-0.9883,-1.5456,-1.8413,-0.9216,-1.3688,-0.8706,-0.9645,1.7446,-0.0575,-1.256,0.7547],[0.3693,-0.8976,-1.3442,-0.4973,2.5887,-1.123,-0.7845,-0.4871,0.8151,-1.1179,2.1943,-0.5162,-1.328,-1.5696,2.6931,-1.1519,0.0767,-1.2597,3.1032,2.6781,-1.68,-0.8146,0.3822,-1.2028],[-0.6206,-0.9681,-1.5559,-0.0311,-0.8516,-0.6665,1.8443,-0.5248,-0.6474,-0.8226,-1.1197,-0.5603,-1.5379,0.1359,-1.6737,1.4486,-0.847,-1.0214,-0.5478,-1.7099,-1.1057,3.2064,0.1496,0.2608],[-0.931,-0.573,-0.7477,-0.4724,0.2166,2.2358,1.8915,0.1932,0.6131,-1.3955,-0.4915,-0.4865,1.9477,-0.9912,-0.3233,1.1616,2.7748,-0.9631,-0.7573,0.0374,-0.5512,-0.4187,2.671,0.4111],[-1.4226,-0.8566,1.8303,2.0828,-1.9111,-1.0772,-0.1924,0.7501,-0.4564,-0.6144,-1.1301,-0.4808,-1.5429,1.2236,1.4973,-0.7862,-1.1388,-1.167,-1.0089,-2.0092,-1.3172,-0.7944,-1.3933,-1.388],[2.3605,-1.0474,-0.1009,0.0408,-0.2285,-1.0754,-2.0013,-0.2728,-0.4814,-1.2847,-0.8399,3.1361,-1.1125,1.1561,-2.6727,-1.553,-0.7894,2.9209,-0.7143,-2.1685,-0.9702,-0.7903,0.2374,-1.6161]],"b1":[-1.9059,-1.4846,-2.9333,-1.9588,-3.0686,-2.7874,-2.9782,-2.0488,-2.7547,-2.8283,-2.5571,-2.0583,-2.4586,-3.0221,-4.1315,-2.5808,-4.0427,-4.461,-3.4556,-2.5011,-2.7959,-1.4953,-1.8944,-1.4261],"W2":[[1.683,-0.18,0.1578,-1.6441,0.1454,0.3327,-0.0872,0.1483,0.4303,-0.9424,0.1262,0.6252],[-1.1467,-0.9802,0.2164,0.6747,0.8927,0.1533,0.6183,-0.8389,0.4376,-0.541,0.8162,-0.34],[-0.4891,0.8915,0.4212,0.5262,-1.0009,-0.4775,-0.359,0.9983,-1.7085,0.0697,0.11,0.434],[-0.8944,0.6542,-0.6316,0.6013,0.3217,0.4181,0.7623,0.4309,-0.2362,-0.4259,-0.4821,-0.7688],[0.1898,-0.3576,0.7205,1.1039,-1.2801,-0.4089,-2.128,1.0156,0.063,1.5413,0.9234,-0.2833],[1.2265,-2.2645,0.8265,1.0739,-0.9571,0.1759,-0.7795,1.0467,-0.9878,1.5271,0.3983,-1.0157],[-1.1783,-0.1973,1.3921,0.2196,-0.2995,1.0948,-0.7293,-0.2342,-0.072,-0.7379,-0.1885,1.321],[-0.1299,-0.239,0.2537,0.1888,-0.1986,0.1091,-0.1775,0.9788,-0.5238,0.6402,-0.1199,-0.1075],[-0.7935,-0.0711,0.5244,0.5107,-1.4154,-0.9408,-1.418,0.7507,-0.1806,1.1824,0.6097,-0.0568],[0.3923,0.2244,0.8304,0.2125,-0.8075,-0.2319,-0.5262,0.2115,-1.825,0.6336,0.578,1.2679],[-0.1344,-0.1387,-0.0668,0.2083,-0.3542,-0.2593,-0.4845,-0.0044,0.0264,0.0001,1.2124,0.1397],[0.7868,0.5879,-0.9899,-1.7246,0.2679,0.1689,-0.0526,0.3832,-0.4159,-1.1137,0.2252,0.6361],[-2.082,-0.1431,1.1186,-0.4982,-0.3161,0.558,0.8305,-0.4012,-0.0292,0.6889,-0.1743,-0.2074],[0.6682,-0.096,-0.0072,0.6532,-0.1491,0.0449,-0.0089,0.7415,-0.487,-0.7423,-0.0818,-0.2654],[-0.2623,-0.0171,-0.1118,0.259,-0.9971,-0.5869,-0.2788,0.0843,-0.3533,0.2335,-0.2119,1.4687],[-1.1009,-0.1617,0.0236,0.4161,0.7515,-0.1128,0.0659,-0.6598,0.6043,-0.2038,0.0537,0.1892],[-1.2977,0.5769,0.7351,1.0431,-1.4059,-1.4901,-0.7995,1.7815,-0.8224,0.7792,1.4668,0.4471],[0.98,-0.0038,-0.0909,-0.3879,-0.1141,0.1546,-0.722,-0.0303,-0.8206,-0.6271,1.4917,0.3527],[-0.6023,0.8225,-0.7778,-0.3891,-0.3078,-0.2879,-0.3092,0.0119,1.2429,-0.2178,1.2869,-0.2037],[0.2489,1.5364,0.2249,0.4747,-1.4463,-0.8453,-0.5667,0.1542,-0.0208,-0.046,0.3478,0.2937],[-1.8522,-0.2999,1.1597,0.524,0.5123,0.3645,-0.3542,-1.4704,0.7996,0.7729,-0.0583,0.0922],[-0.9432,-0.5339,-1.7715,0.4111,1.1019,1.0348,1.2048,0.3437,-0.2732,-0.1665,-0.325,-0.7825],[0.8507,0.1252,1.061,-0.2039,0.3666,-0.5859,-0.1449,0.248,-0.5445,0.2578,-0.2213,-0.0334],[0.17,-0.3531,-0.7475,1.2168,0.4225,0.2197,0.651,-1.0526,1.1185,-0.6841,-0.2153,0.3205]],"b2":[-2.7314,0.8385,-0.8046,-1.1847,0.2221,0.1111,-0.2014,1.2494,0.7454,-0.2704,1.3943,0.6317],"examples":94867},"note":"Cheater's Model: a from-scratch MLP (+ n-gram fallback) of SM64 play, trained from .m64 controller inputs. Imitation, not a replay."}